528716.995067497        0.00019   -0.00017    0.00012   -0.00054    0.00369   -0.00054
528717.000000000        0.00019   -0.00017    0.00012   -0.00054    0.00369   -0.00054
528717.017762034        0.06117    0.00215   -0.02330   -0.00042    0.00370   -0.00064
528717.317763915        0.05897    0.00339   -0.02310   -0.00040    0.00374   -0.00075
528717.617765886        0.04614    0.00328   -0.02346   -0.00037    0.00381   -0.00079
528717.967768185        0.04068    0.00266   -0.02466   -0.00038    0.00381   -0.00078
528718.000000000        0.03532    0.00149   -0.02581   -0.00044    0.00389   -0.00081
528718.267770162        0.03196    0.00038   -0.02729   -0.00049    0.00386   -0.00082
528718.617772468        0.03350    0.00026   -0.02832   -0.00051    0.00381   -0.00085
528718.967774775        0.03317   -0.00010   -0.02978   -0.00053    0.00384   -0.00087
528719.000000000        0.03332   -0.00080   -0.03186   -0.00052    0.00383   -0.00090
528719.317777075        0.03224   -0.00115   -0.03310   -0.00054    0.00376   -0.00090
528719.567778718        0.03289   -0.00119   -0.03211   -0.00058    0.00373   -0.00088
528719.817780360        0.06797   -0.00131   -0.02999   -0.00060    0.00375   -0.00089
528720.000000000        0.07008   -0.00106   -0.02978   -0.00063    0.00378   -0.00089
528720.267783319        0.07061   -0.00084   -0.03072   -0.00068    0.00384   -0.00091
528720.517784964        0.06993   -0.00088   -0.03127   -0.00070    0.00380   -0.00090
528720.767786609        0.07618   -0.00135   -0.03198   -0.00070    0.00377   -0.00086
528721.000000000        0.07604   -0.00094   -0.03146   -0.00065    0.00369   -0.00082
528721.267789897        0.07611   -0.00107   -0.03122   -0.00062    0.00367   -0.00076
528721.517791539        0.07526   -0.00150   -0.03101   -0.00061    0.00368   -0.00071
528721.767793182        0.08603   -0.00119   -0.03123   -0.00060    0.00370   -0.00068
528722.000000000        0.08526   -0.00100   -0.03130   -0.00059    0.00369   -0.00069
528722.267796467        0.08306   -0.00122   -0.03167   -0.00055    0.00368   -0.00071
528722.517798109        0.08339   -0.00083   -0.03242   -0.00053    0.00362   -0.00073
528722.767799752        0.08583    0.00243   -0.03285   -0.00051    0.00358   -0.00076
528723.000000000        0.08777    0.00172   -0.03282   -0.00051    0.00356   -0.00075
528723.267803037        0.09318    0.00249   -0.03308   -0.00052    0.00353   -0.00070
528723.517804679        0.09965    0.00171   -0.03334   -0.00052    0.00347   -0.00061
528723.867806979        0.10700   -0.00488   -0.03385   -0.00054    0.00342   -0.00051
528724.000000000        0.10792   -0.00572   -0.03400   -0.00054    0.00335   -0.00040
528724.317809945        0.10583   -0.00477   -0.03332   -0.00056    0.00330   -0.00032
528724.617811925        0.10004   -0.00137   -0.03304   -0.00058    0.00326   -0.00026
528724.917813905        0.09642   -0.00056   -0.03242   -0.00059    0.00322   -0.00022
528725.000000000        0.09388    0.00195   -0.03205   -0.00065    0.00320   -0.00015
528725.317816535        0.11465   -0.03373   -0.03043   -0.00068    0.00320   -0.00010
528725.667818835        0.11422   -0.03517   -0.03104   -0.00069    0.00320   -0.00008
528726.000000000        0.11334   -0.03573   -0.03138   -0.00069    0.00318   -0.00009
528726.367823434        0.11029   -0.06254   -0.03090   -0.00071    0.00320   -0.00010
528726.717825733        0.10994   -0.06080   -0.03114   -0.00071    0.00317   -0.00009
528727.000000000        0.10983   -0.05587   -0.03163   -0.00070    0.00314   -0.00009
528727.367830004        0.10959   -0.05020   -0.03212   -0.00069    0.00316   -0.00006
528727.767832632        0.10939   -0.04191   -0.03246   -0.00069    0.00317   -0.00003
528728.000000000        0.10821   -0.02325   -0.03203   -0.00066    0.00319    0.00001
528728.367836581        0.10737   -0.00808   -0.03243   -0.00065    0.00323    0.00001
528728.767839217        0.10633    0.00557   -0.03290   -0.00064    0.00326   -0.00001
528729.000000000        0.10532    0.02269   -0.03339   -0.00059    0.00327   -0.00004
528729.517844155        0.10439    0.03343   -0.03367   -0.00056    0.00327   -0.00007
528730.017847495        0.10295    0.04277   -0.03401   -0.00057    0.00328   -0.00007
528730.517850740        0.10225    0.04767   -0.03435   -0.00054    0.00329   -0.00008
528730.967853705        0.10191    0.04940   -0.03440   -0.00055    0.00331   -0.00011
528731.367856334        0.10199    0.04926   -0.03423   -0.00055    0.00333   -0.00013
528731.717858634        0.10239    0.05031   -0.03387   -0.00056    0.00335   -0.00015
528732.067860985        0.10465    0.05491   -0.03426   -0.00056    0.00338   -0.00015
528732.417863245        0.16794    0.05799   -0.03249   -0.00058    0.00343   -0.00014
528732.767865555        0.16786    0.05809   -0.03213   -0.00059    0.00343   -0.00014
528733.117867862        0.16827    0.06200   -0.03130   -0.00058    0.00345   -0.00015
528733.467870161        0.20983    0.05373   -0.02980   -0.00057    0.00348   -0.00015
528733.867872789        0.21054    0.05301   -0.02978   -0.00056    0.00350   -0.00018
528734.000000000        0.21051    0.05060   -0.02997   -0.00056    0.00353   -0.00021
528734.417876411        0.20739    0.04677   -0.03002   -0.00055    0.00354   -0.00024
528734.917879706        0.20676    0.04788   -0.02966   -0.00055    0.00355   -0.00029
528735.000000000        0.20731    0.04509   -0.02962   -0.00056    0.00356   -0.00034
528735.517883665        0.20948    0.03068   -0.02932   -0.00058    0.00358   -0.00036
528735.917886305        0.20996    0.02900   -0.02948   -0.00060    0.00358   -0.00036
528736.000000000        0.21053    0.02673   -0.02956   -0.00061    0.00357   -0.00035
528736.417889593        0.21074    0.02601   -0.02988   -0.00062    0.00356   -0.00035
528736.767891892        0.21070    0.02568   -0.02993   -0.00063    0.00355   -0.00035
528737.000000000        0.21074    0.02663   -0.03016   -0.00064    0.00354   -0.00035
528737.267895185        0.21079    0.02780   -0.03048   -0.00064    0.00353   -0.00034
528737.417896175        0.21076    0.02880   -0.03061   -0.00064    0.00352   -0.00034
528737.567897165        0.21027    0.02320   -0.03079   -0.00065    0.00352   -0.00034
528737.667897825        0.21018    0.02388   -0.03099   -0.00065    0.00351   -0.00033
528737.767898485        0.21020    0.02343   -0.03087   -0.00066    0.00350   -0.00033
528737.867899145        0.21033    0.02286   -0.03067   -0.00066    0.00349   -0.00033
528737.967899805        0.21051    0.02193   -0.03034   -0.00067    0.00349   -0.00034
528738.000000000        0.21063    0.02073   -0.02999   -0.00067    0.00348   -0.00034
528738.117900794        0.21038    0.02117   -0.03008   -0.00068    0.00348   -0.00034
528738.217901453        0.21020    0.02187   -0.03016   -0.00069    0.00348   -0.00034
528738.317902112        0.21021    0.02285   -0.03021   -0.00070    0.00347   -0.00034
528738.417902771        0.21039    0.02379   -0.03015   -0.00070    0.00347   -0.00034
528738.517903430        0.21061    0.02481   -0.03007   -0.00071    0.00346   -0.00034
528738.617904089        0.21081    0.02495   -0.02995   -0.00072    0.00346   -0.00034
528738.717904748        0.21095    0.02549   -0.02986   -0.00072    0.00346   -0.00034
528738.767905078        0.21075    0.02079   -0.02976   -0.00074    0.00348   -0.00036
528738.817905407        0.21073    0.02080   -0.02981   -0.00074    0.00348   -0.00036
528738.867905737        0.21070    0.01933   -0.02956   -0.00075    0.00347   -0.00037
528738.917906066        0.21063    0.01776   -0.02938   -0.00075    0.00347   -0.00037
528738.967906396        0.21051    0.01521   -0.02919   -0.00075    0.00347   -0.00037
528739.000000000        0.21052    0.01425   -0.02901   -0.00076    0.00346   -0.00037
528739.067907103        0.21061    0.01385   -0.02880   -0.00076    0.00346   -0.00037
528739.117907382        0.21064    0.01537   -0.02899   -0.00077    0.00347   -0.00037
528739.167907710        0.21060    0.01512   -0.02907   -0.00078    0.00348   -0.00037
528739.217908039        0.21051    0.01136   -0.02876   -0.00078    0.00347   -0.00037
528739.267908367        0.21042    0.00615   -0.02833   -0.00078    0.00347   -0.00037
528739.317908696        0.21029    0.00264   -0.02823   -0.00079    0.00347   -0.00037
528739.367909024        0.21013   -0.00190   -0.02807   -0.00079    0.00346   -0.00037
528739.417909353        0.21002   -0.00475   -0.02797   -0.00080    0.00346   -0.00037
528739.467909681        0.20984   -0.00485   -0.02817   -0.00080    0.00346   -0.00037
528739.517910010        0.20973   -0.00396   -0.02838   -0.00081    0.00346   -0.00038
528739.567910338        0.20971   -0.00560   -0.02829   -0.00082    0.00346   -0.00038
528739.617910667        0.20964   -0.00766   -0.02832   -0.00082    0.00346   -0.00038
528739.667910995        0.20960   -0.00923   -0.02822   -0.00083    0.00346   -0.00038
528739.717911324        0.20962   -0.01152   -0.02783   -0.00083    0.00345   -0.00039
528739.767911652        0.20383    0.01646   -0.02865   -0.00087    0.00346   -0.00038
528739.817911981        0.20375    0.01296   -0.02871   -0.00087    0.00346   -0.00039
528739.867912309        0.20376    0.00916   -0.02856   -0.00088    0.00346   -0.00039
528739.917912638        0.20376    0.00750   -0.02847   -0.00089    0.00346   -0.00039
528739.967912966        0.20371    0.00246   -0.02839   -0.00089    0.00345   -0.00040
528740.000000000        0.20369   -0.00135   -0.02807   -0.00089    0.00345   -0.00040
528740.067913673        0.20359   -0.00635   -0.02806   -0.00090    0.00345   -0.00041
528740.117913952        0.20349   -0.01019   -0.02820   -0.00090    0.00345   -0.00041
528740.167914280        0.20343   -0.01349   -0.02825   -0.00091    0.00344   -0.00041
528740.267914937        0.20344   -0.01558   -0.02824   -0.00091    0.00344   -0.00042
528740.317915266        0.20345   -0.01763   -0.02833   -0.00092    0.00344   -0.00042
528740.367915594        0.20350   -0.01853   -0.02822   -0.00093    0.00343   -0.00042
528740.417915923        0.20351   -0.01860   -0.02822   -0.00093    0.00342   -0.00043
528740.467916251        0.20338   -0.01734   -0.02856   -0.00094    0.00342   -0.00043
528740.517916580        0.20330   -0.01640   -0.02872   -0.00094    0.00342   -0.00043
528740.567916908        0.20326   -0.01527   -0.02876   -0.00095    0.00341   -0.00043
528740.617917237        0.20325   -0.01412   -0.02893   -0.00096    0.00341   -0.00044
528740.667917565        0.20326   -0.01346   -0.02899   -0.00096    0.00341   -0.00044
528740.717917894        0.20318   -0.01195   -0.02890   -0.00097    0.00340   -0.00045
528740.767918222        0.18965    0.02266   -0.02995   -0.00102    0.00339   -0.00042
528740.817918551        0.18959    0.02067   -0.03004   -0.00103    0.00339   -0.00042
528740.867918879        0.18957    0.01918   -0.03007   -0.00104    0.00339   -0.00042
528740.917919208        0.18958    0.01757   -0.03005   -0.00104    0.00338   -0.00043
528740.967919536        0.18960    0.01641   -0.03008   -0.00105    0.00338   -0.00043
528741.000000000        0.18957    0.01597   -0.03015   -0.00106    0.00338   -0.00043
528741.067920245        0.18957    0.01526   -0.03010   -0.00106    0.00337   -0.00044
528741.117920525        0.18956    0.01432   -0.03007   -0.00107    0.00337   -0.00044
528741.167920855        0.18948    0.01405   -0.03023   -0.00107    0.00337   -0.00044
528741.217921185        0.18949    0.01324   -0.03030   -0.00108    0.00336   -0.00045
528741.267921515        0.18953    0.01289   -0.03035   -0.00108    0.00336   -0.00045
528741.317921845        0.18963    0.01155   -0.03035   -0.00109    0.00335   -0.00045
528741.367922175        0.18965    0.01115   -0.03064   -0.00110    0.00335   -0.00045
528741.417922505        0.18962    0.01115   -0.03066   -0.00111    0.00334   -0.00046
528741.467922835        0.18961    0.01147   -0.03078   -0.00112    0.00333   -0.00046
528741.567923495        0.18049    0.02309   -0.03139   -0.00114    0.00332   -0.00044
528741.667924155        0.18038    0.02182   -0.03157   -0.00115    0.00331   -0.00044
528741.767924815        0.18011    0.02028   -0.03174   -0.00116    0.00330   -0.00044
528741.867925475        0.17987    0.01962   -0.03181   -0.00116    0.00330   -0.00044
528741.967926135        0.17947    0.01793   -0.03178   -0.00116    0.00330   -0.00044
528742.000000000        0.17871    0.01707   -0.03158   -0.00117    0.00329   -0.00045
528742.117927122        0.17797    0.01632   -0.03153   -0.00118    0.00329   -0.00045
528742.217927779        0.16542    0.02889   -0.03225   -0.00121    0.00328   -0.00042
528742.317928436        0.16358    0.02792   -0.03192   -0.00121    0.00327   -0.00042
528742.467929422        0.16189    0.02618   -0.03183   -0.00119    0.00329   -0.00042
528742.617930407        0.16064    0.02507   -0.03209   -0.00117    0.00333   -0.00042
528742.817931721        0.15932    0.02512   -0.03201   -0.00116    0.00333   -0.00043
528743.000000000        0.15746    0.02595   -0.03193   -0.00116    0.00333   -0.00042
528743.417935675        0.15654    0.02687   -0.03209   -0.00116    0.00333   -0.00041
528743.917938975        0.15511    0.02697   -0.03312   -0.00115    0.00337   -0.00041
528744.367941942        0.15387    0.02871   -0.03288   -0.00114    0.00334   -0.00041
528744.567943260        0.15244    0.02988   -0.03409   -0.00114    0.00336   -0.00041
528744.967945896        0.15224    0.03023   -0.03380   -0.00115    0.00334   -0.00041
528745.000000000        0.15175    0.03062   -0.03421   -0.00114    0.00335   -0.00041
528745.367948525        0.15145    0.03080   -0.03427   -0.00113    0.00335   -0.00040
528745.717950824        0.15144    0.03041   -0.03438   -0.00113    0.00335   -0.00040
528745.967952467        0.15131    0.03054   -0.03411   -0.00114    0.00335   -0.00040
528746.000000000        0.15129    0.03046   -0.03417   -0.00113    0.00336   -0.00039
528746.317954776        0.15090    0.03122   -0.03393   -0.00112    0.00336   -0.00039
528746.667957086        0.15034    0.03190   -0.03434   -0.00111    0.00336   -0.00040
528746.967959066        0.14977    0.03289   -0.03458   -0.00111    0.00336   -0.00040
528747.000000000        0.14972    0.03296   -0.03463   -0.00111    0.00337   -0.00040
528747.367961702        0.14998    0.03283   -0.03405   -0.00111    0.00337   -0.00041
528747.667963679        0.15011    0.03276   -0.03337   -0.00111    0.00339   -0.00040
528747.967965656        0.15168    0.02977   -0.03271   -0.00111    0.00340   -0.00041
528748.000000000        0.15168    0.02977   -0.03308   -0.00111    0.00341   -0.00041
528748.317967959        0.15188    0.02963   -0.03355   -0.00111    0.00341   -0.00041
528748.617969933        0.15209    0.02949   -0.03429   -0.00112    0.00340   -0.00040
528748.867971578        0.15220    0.02927   -0.03472   -0.00112    0.00340   -0.00039
528749.000000000        0.15240    0.02927   -0.03497   -0.00111    0.00340   -0.00039
528749.267974213        0.15205    0.02959   -0.03493   -0.00110    0.00341   -0.00039
528749.567976190        0.15171    0.03009   -0.03485   -0.00110    0.00341   -0.00039
528749.867978167        0.15149    0.03034   -0.03480   -0.00109    0.00340   -0.00039
528750.117979816        0.15114    0.03032   -0.03500   -0.00108    0.00340   -0.00038
528750.367981466        0.15084    0.03044   -0.03489   -0.00107    0.00340   -0.00038
528750.617983116        0.15059    0.03076   -0.03460   -0.00106    0.00339   -0.00039
528750.867984766        0.14972    0.03140   -0.03525   -0.00105    0.00338   -0.00038
528751.167986741        0.14908    0.03200   -0.03541   -0.00104    0.00338   -0.00038
528751.567989369        0.14891    0.03204   -0.03530   -0.00104    0.00338   -0.00038
528751.817991011        0.14784    0.03343   -0.03509   -0.00104    0.00338   -0.00038
528752.067992655        0.14766    0.03353   -0.03487   -0.00104    0.00338   -0.00038
528752.317994303        0.14757    0.03363   -0.03492   -0.00104    0.00339   -0.00039
528752.567995950        0.14737    0.03378   -0.03503   -0.00105    0.00339   -0.00039
528752.817997598        0.14715    0.03396   -0.03501   -0.00104    0.00338   -0.00040
528753.067999246        0.14697    0.03387   -0.03535   -0.00103    0.00339   -0.00040
528753.368001226        0.14703    0.03386   -0.03482   -0.00103    0.00338   -0.00040
528753.618002876        0.14686    0.03407   -0.03451   -0.00102    0.00337   -0.00040
528753.868004526        0.14653    0.03433   -0.03435   -0.00102    0.00337   -0.00040
528754.068005845        0.14613    0.03466   -0.03429   -0.00101    0.00337   -0.00041
528754.318007493        0.14589    0.03485   -0.03424   -0.00100    0.00337   -0.00041
528754.568009140        0.14565    0.03503   -0.03452   -0.00099    0.00336   -0.00041
528754.818010788        0.14540    0.03518   -0.03487   -0.00098    0.00336   -0.00041
528755.068012486        0.14509    0.03550   -0.03489   -0.00098    0.00336   -0.00041
528755.318014086        0.14482    0.03585   -0.03488   -0.00098    0.00335   -0.00041
528755.568015736        0.14437    0.03639   -0.03504   -0.00098    0.00335   -0.00040
528755.818017386        0.14400    0.03678   -0.03471   -0.00098    0.00335   -0.00040
528756.068019035        0.14351    0.03737   -0.03469   -0.00098    0.00336   -0.00040
528756.318020683        0.14285    0.03817   -0.03481   -0.00098    0.00336   -0.00040
528756.568022330        0.14204    0.03918   -0.03475   -0.00097    0.00335   -0.00041
528756.818023978        0.14132    0.03990   -0.03472   -0.00097    0.00336   -0.00041
528757.068025674        0.14070    0.04053   -0.03460   -0.00096    0.00336   -0.00041
528757.368027595        0.14000    0.04127   -0.03465   -0.00095    0.00336   -0.00041
528757.618029238        0.13936    0.04200   -0.03499   -0.00096    0.00336   -0.00041
528757.868030880        0.13879    0.04260   -0.03505   -0.00096    0.00335   -0.00040
528758.168032856        0.13859    0.04270   -0.03516   -0.00096    0.00335   -0.00041
528758.468034836        0.13885    0.04237   -0.03510   -0.00096    0.00335   -0.00040
528758.768036816        0.13861    0.04258   -0.03492   -0.00096    0.00335   -0.00040
528759.018038516        0.13832    0.04289   -0.03481   -0.00096    0.00335   -0.00040
528759.318040446        0.13825    0.04298   -0.03471   -0.00096    0.00334   -0.00039
528759.668042756        0.13841    0.04298   -0.03456   -0.00096    0.00333   -0.00038
528759.968044736        0.13850    0.04291   -0.03465   -0.00096    0.00333   -0.00037
528760.268046713        0.13840    0.04291   -0.03465   -0.00095    0.00334   -0.00037
528760.618049020        0.13825    0.04285   -0.03487   -0.00095    0.00335   -0.00037
528760.968051327        0.13810    0.04285   -0.03481   -0.00096    0.00335   -0.00037
528761.318053636        0.13802    0.04303   -0.03455   -0.00096    0.00335   -0.00037
528761.668055946        0.13796    0.04304   -0.03483   -0.00096    0.00335   -0.00035
528761.968057926        0.13779    0.04322   -0.03539   -0.00095    0.00334   -0.00034
528762.268059904        0.13755    0.04329   -0.03547   -0.00094    0.00332   -0.00035
528762.568061881        0.13776    0.04310   -0.03544   -0.00093    0.00332   -0.00035
528762.968064517        0.13689    0.04308   -0.03481   -0.00094    0.00332   -0.00035
528763.318066826        0.13790    0.04160   -0.03501   -0.00093    0.00332   -0.00036
528763.718069466        0.13619    0.04424   -0.03535   -0.00094    0.00331   -0.00032
528764.118072109        0.13623    0.04493   -0.03491   -0.00095    0.00330   -0.00030
528764.468074426        0.13597    0.04503   -0.03441   -0.00095    0.00331   -0.00031
528764.768076412        0.13560    0.04508   -0.03403   -0.00095    0.00332   -0.00031
528765.118078725        0.13528    0.04512   -0.03398   -0.00096    0.00333   -0.00031
528765.468081032        0.13491    0.04514   -0.03413   -0.00096    0.00333   -0.00031
528765.868083668        0.13466    0.04515   -0.03407   -0.00096    0.00334   -0.00030
528766.168085646        0.13440    0.04526   -0.03407   -0.00097    0.00334   -0.00029
528766.468087626        0.13406    0.04550   -0.03393   -0.00097    0.00335   -0.00029
528766.818089936        0.13364    0.04582   -0.03391   -0.00097    0.00335   -0.00030
528767.168092245        0.13287    0.04630   -0.03392   -0.00097    0.00335   -0.00031
528767.468094222        0.13185    0.04671   -0.03478   -0.00097    0.00339   -0.00032
528767.768096199        0.13035    0.04816   -0.03418   -0.00095    0.00336   -0.00032
528768.118098507        0.12954    0.04863   -0.03459   -0.00096    0.00336   -0.00032
528768.568101477        0.11763    0.05093   -0.03532   -0.00092    0.00337   -0.00050
528768.918103787        0.11724    0.05075   -0.03526   -0.00091    0.00338   -0.00051
528769.218105764        0.11684    0.05056   -0.03530   -0.00091    0.00338   -0.00051
528769.468107412        0.11565    0.04882   -0.03566   -0.00092    0.00342   -0.00054
528769.818109718        0.11544    0.04877   -0.03556   -0.00092    0.00342   -0.00054
528770.000000000        0.11502    0.04877   -0.03557   -0.00092    0.00342   -0.00054
528770.418113685        0.11423    0.04733   -0.03575   -0.00093    0.00345   -0.00055
528770.768116002        0.11404    0.04738   -0.03612   -0.00093    0.00345   -0.00055
528771.000000000        0.11404    0.04737   -0.03622   -0.00093    0.00345   -0.00055
528771.318119637        0.11412    0.04682   -0.03628   -0.00093    0.00346   -0.00055
528771.668121947        0.11427    0.04685   -0.03607   -0.00093    0.00347   -0.00056
528772.000000000        0.11431    0.04689   -0.03589   -0.00092    0.00347   -0.00056
528772.418126893        0.11444    0.04690   -0.03584   -0.00092    0.00348   -0.00056
528772.818129529        0.11445    0.04693   -0.03587   -0.00092    0.00348   -0.00056
528773.000000000        0.11451    0.04701   -0.03587   -0.00092    0.00348   -0.00057
528773.468133817        0.11634    0.04781   -0.03606   -0.00092    0.00348   -0.00057
528773.868136457        0.11634    0.04790   -0.03609   -0.00093    0.00348   -0.00057
528774.000000000        0.11637    0.04798   -0.03609   -0.00092    0.00348   -0.00056
