546526.998872991        0.00006   -0.00003   -0.00010   -0.00077    0.00342   -0.00084
546527.000000000        0.00006   -0.00003   -0.00010   -0.00077    0.00342   -0.00084
546527.006437774        0.05676   -0.00324   -0.03939   -0.00087    0.00355   -0.00158
546527.356363291        0.04737   -0.00709   -0.03537   -0.00118    0.00369   -0.00099
546527.806328526        0.03388   -0.00507   -0.03959   -0.00130    0.00390   -0.00047
546528.000000000        0.03532    0.00011   -0.04130   -0.00135    0.00379   -0.00041
546528.206303396        0.03753    0.00480   -0.03880   -0.00090    0.00371   -0.00037
546528.606333260        0.04192    0.00999   -0.03809   -0.00072    0.00379   -0.00067
546529.006352174        0.04239    0.00749   -0.04204   -0.00069    0.00382   -0.00087
546529.456390351        0.04093   -0.00058   -0.03711   -0.00089    0.00380   -0.00057
546530.006400294        0.04124    0.00197   -0.03116   -0.00104    0.00394   -0.00037
546530.456421521        0.03982    0.00276   -0.03643   -0.00121    0.00397   -0.00032
546531.006371464        0.04593    0.00494   -0.03566   -0.00108    0.00398   -0.00014
546531.506363059        0.04742    0.00294   -0.04024   -0.00095    0.00390    0.00021
546532.106340370        0.04774    0.00451   -0.03812   -0.00099    0.00391    0.00036
546532.706338666        0.04899    0.00455   -0.04023   -0.00103    0.00385    0.00069
546533.306400965        0.04883    0.00748   -0.03778   -0.00109    0.00390    0.00083
546533.856468909        0.04726    0.00957   -0.03729   -0.00113    0.00395    0.00096
546534.406486852        0.04686    0.01267   -0.03714   -0.00103    0.00402    0.00112
546535.006587154        0.04824    0.01593   -0.03736   -0.00105    0.00404    0.00122
546535.456637376        0.04623    0.01864   -0.03764   -0.00113    0.00407    0.00121
546535.806668882        0.04368    0.02859   -0.04103   -0.00117    0.00401    0.00117
546536.056689723        0.04473    0.03156   -0.04036   -0.00132    0.00394    0.00111
546536.306714466        0.04091    0.04770   -0.03908   -0.00134    0.00395    0.00109
546536.556711258        0.03952    0.04802   -0.04017   -0.00146    0.00387    0.00106
546536.856755409        0.04040    0.06662   -0.03953   -0.00158    0.00388    0.00106
546537.256784282        0.04719    0.08520   -0.04182   -0.00152    0.00381    0.00110
546537.756819877        0.04206    0.09574   -0.04044   -0.00150    0.00377    0.00099
546538.356817184        0.02633    0.08526   -0.03456   -0.00138    0.00388    0.00091
546538.956733486        0.01345    0.08061   -0.03819   -0.00134    0.00387    0.00078
546539.456689071        0.01315    0.07819   -0.03856   -0.00131    0.00386    0.00074
546540.056715423        0.01246    0.07727   -0.03817   -0.00132    0.00388    0.00073
546540.606762311        0.01167    0.07614   -0.03770   -0.00134    0.00387    0.00070
546541.056804584        0.01195    0.07629   -0.03750   -0.00136    0.00385    0.00070
546541.506878770        0.01197    0.07610   -0.03748   -0.00136    0.00385    0.00068
546541.956983005        0.01227    0.07619   -0.03649   -0.00136    0.00386    0.00068
546542.357021874        0.01268    0.07563   -0.03758   -0.00135    0.00385    0.00067
546542.657042025        0.01697    0.06610   -0.03697   -0.00134    0.00386    0.00065
546543.007048535        0.02305    0.06396   -0.03591   -0.00135    0.00386    0.00063
546543.357065044        0.03346    0.04705   -0.03494   -0.00127    0.00385    0.00059
546543.707122554        0.03853    0.04777   -0.03466   -0.00124    0.00385    0.00055
546544.007208705        0.03808    0.05309   -0.03292   -0.00127    0.00389    0.00057
546544.357376222        0.03924    0.05641   -0.03318   -0.00125    0.00393    0.00050
546544.757530098        0.04439    0.05906   -0.03541   -0.00121    0.00392    0.00046
546545.207607327        0.04537    0.06043   -0.03702   -0.00118    0.00392    0.00043
546545.857688981        0.04549    0.06156   -0.03678   -0.00115    0.00389    0.00038
546546.257843853        0.04320    0.06199   -0.03688   -0.00114    0.00386    0.00036
546546.657801729        0.04462    0.06023   -0.03828   -0.00114    0.00382    0.00031
546546.957784886        0.04698    0.05844   -0.03571   -0.00109    0.00384    0.00031
546547.207785679        0.04594    0.05785   -0.03599   -0.00113    0.00386    0.00031
546547.507787830        0.04555    0.05750   -0.03676   -0.00112    0.00387    0.00033
546547.807762981        0.04624    0.05669   -0.03692   -0.00109    0.00386    0.00036
546548.107741134        0.04537    0.05592   -0.03660   -0.00115    0.00382    0.00037
546548.607708729        0.04513    0.05539   -0.03542   -0.00112    0.00381    0.00039
546549.107677324        0.04348    0.05541   -0.03482   -0.00114    0.00383    0.00045
546549.657590279        0.04739    0.05595   -0.03497   -0.00116    0.00383    0.00044
546550.207526229        0.04635    0.05644   -0.03644   -0.00114    0.00382    0.00036
546550.707427814        0.04750    0.05740   -0.03788   -0.00112    0.00376    0.00030
546551.207369403        0.04853    0.05747   -0.03727   -0.00111    0.00376    0.00028
546551.657465639        0.04840    0.05601   -0.03577   -0.00109    0.00375    0.00028
546552.207559587        0.04716    0.05573   -0.03500   -0.00110    0.00378    0.00026
546552.657546809        0.04497    0.05621   -0.03502   -0.00110    0.00378    0.00024
546553.157632396        0.04354    0.05632   -0.03519   -0.00108    0.00379    0.00023
546553.457753556        0.04160    0.05613   -0.03534   -0.00109    0.00378    0.00021
546553.657879996        0.04215    0.05568   -0.03482   -0.00116    0.00368    0.00024
546553.857961436        0.04257    0.05576   -0.03446   -0.00120    0.00370    0.00023
546554.208035954        0.03306    0.05635   -0.03856   -0.00090    0.00498    0.00025
546554.608051830        0.04709    0.05216   -0.02808   -0.00158    0.00536    0.00030
546554.908061987        0.04708    0.05216   -0.02807   -0.00158    0.00536    0.00030
546555.208052144        0.04781    0.05183   -0.02810   -0.00172    0.00524    0.00048
546555.608019020        0.12173    0.04654   -0.04491   -0.00180    0.00468    0.00061
546555.707945739        0.12174    0.04655   -0.04495   -0.00180    0.00468    0.00061
546555.957860536        0.45221    0.01664   -0.04030   -0.00138    0.00471    0.00060
546556.257859686        0.47234    0.00539   -0.04117   -0.00134    0.00469    0.00054
546556.657862550        0.47373    0.00145   -0.04084   -0.00135    0.00466    0.00053
546556.957864698        0.47821   -0.00461   -0.04045   -0.00134    0.00465    0.00051
546557.307867213        0.48620   -0.01396   -0.04054   -0.00133    0.00463    0.00049
546557.707886089        0.49390   -0.02584   -0.03955   -0.00132    0.00461    0.00048
546558.107852963        0.50011   -0.03578   -0.03977   -0.00132    0.00460    0.00046
546558.707776265        0.50735   -0.04444   -0.03900   -0.00128    0.00458    0.00044
