0.99500000     0.00190225     0.00284094    -0.00001025    -0.00798164     0.00518107    -0.00300983
     1.00000000     0.00190225     0.00284094    -0.00001025    -0.00798164     0.00518107    -0.00300983
     1.00000308     0.25034306     0.11219044     0.07770492     0.00000797     0.00415149    -0.00150087
     1.24999679     0.14740048     0.03666697    -0.03162786    -0.00024206     0.00396864    -0.00135368
     1.45000503     0.06600649    -0.00109155    -0.05056847    -0.00001803     0.00377240    -0.00119885
     1.65001277     0.02613527    -0.01079786    -0.05386483    -0.00011117     0.00386262    -0.00120717
     1.85003196     0.08231158    -0.01148651     0.00346149    -0.00046784     0.00382909    -0.00035174
     2.00000000     0.08233758    -0.01110328     0.00515152    -0.00045437     0.00376876    -0.00034599
     2.05002344     0.07712164    -0.01183462     0.01186036    -0.00033336     0.00361087     0.00012463
     2.25002464     0.07960052    -0.00833065     0.01673167    -0.00035895     0.00331790     0.00016939
